51 6 2
-0.28073 -0.09245 0.03483 0.06256 0.09345 0.10054 
-0.00108 -0.11128 -0.06262 -0.06581 0.09207 -0.11185 
-0.07788 0.05948 -0.08914 0.07863 0.09434 0.04664 
0.50027 0.32499 0.14608 -0.04621 -0.22135 -0.61109 
0.07573 -0.05854 0.08097 -0.03402 -0.01507 0.04680 
0.23497 0.23276 0.11753 -0.11181 -0.10043 -0.24328 
-0.10568 -0.07133 -0.02769 0.00197 0.09659 0.13227 
-0.15532 -0.14682 -0.02533 0.03959 0.13677 0.14780 
-0.03047 0.08092 -0.01884 -0.08023 0.07408 -0.05035 
0.06096 0.05860 -0.06496 0.05400 0.06440 -0.01265 
0.11075 0.14936 0.07070 0.00783 -0.14912 -0.21376 
-0.14566 -0.18313 -0.13246 0.01827 0.04045 0.05026 
-0.10991 -0.08107 -0.05131 0.08072 0.07869 0.14555 
-0.00475 -0.04962 -0.05670 0.05461 0.09662 0.00388 
0.12539 0.17360 0.13446 -0.04127 -0.11041 -0.07918 
-0.13094 -0.01035 0.04728 -0.04103 -0.03486 0.03139 
-0.08754 -0.06036 -0.07410 -0.02264 -0.06548 0.07553 
0.64909 0.41262 0.22729 -0.11500 -0.31980 -0.60154 
0.22545 0.18855 -0.01420 -0.09282 -0.10472 -0.15602 
-0.07261 -0.01385 0.06416 -0.08365 -0.03686 -0.01184 
-0.50250 -0.34882 -0.08880 -0.00394 0.08179 0.40631 
-0.28319 -0.10676 -0.11318 0.07634 0.16290 0.21776 
-0.09033 -0.08210 -0.09217 -0.02475 0.06507 -0.08202 
-0.01180 -0.18457 -0.01557 0.01600 0.09039 0.10430 
0.05632 0.01534 0.01685 -0.04291 -0.10676 0.06663 
0.14761 -0.04635 0.11813 0.07491 -0.12243 -0.17857 
0.27513 0.11126 0.12454 -0.04528 0.00573 -0.20781 
-0.03585 -0.03729 -0.05048 0.01327 -0.12987 -0.00899 
-0.13164 -0.01182 -0.01660 0.06864 0.00191 0.10654 
-0.17860 -0.02689 -0.03098 0.02212 0.07925 0.12767 
0.08038 -0.06366 0.04370 0.04050 0.06810 0.06981 
0.29470 0.05372 0.15726 0.05779 -0.11049 -0.34275 
-0.16393 -0.04903 -0.04638 -0.02433 0.02058 0.07318 
0.03003 0.00676 0.02436 -0.03412 -0.00497 -0.14870 
-0.09065 -0.09059 0.05588 0.04556 0.03461 -0.03404 
-0.00422 -0.03572 -0.10651 -0.03893 0.03450 0.04448 
-0.08007 -0.09825 -0.13667 -0.02001 0.13795 0.23816 
-0.20302 -0.06507 -0.05686 0.00402 0.07468 0.22709 
0.04796 0.09057 -0.03160 -0.08913 -0.02891 -0.02012 
-0.19338 -0.10408 -0.07811 -0.00137 0.08506 0.18842 
0.01398 0.13989 0.01538 0.02066 -0.06599 -0.03934 
0.89874 0.55316 0.35224 -0.04714 -0.37078 -1.08646 
0.39584 0.19761 0.01954 -0.04644 -0.17315 -0.31782 
0.23583 0.11597 0.04685 -0.09620 0.02683 -0.12862 
-0.11596 -0.08376 -0.11225 0.04157 -0.02901 0.00825 
-0.34045 -0.21929 -0.05943 -0.03732 0.11475 0.49168 
0.13620 0.07474 -0.01974 -0.01097 -0.08871 -0.08742 
0.04167 -0.05616 0.01738 -0.03225 -0.00487 -0.11473 
-0.14833 0.01163 -0.08183 -0.06033 0.06500 0.16416 
-0.01340 0.08424 0.09390 0.03782 0.03344 0.08415 
0.80647 0.41577 0.28982 0.00691 -0.32604 -0.77651 
-0.23529 -0.14404 -0.05537 -0.00522 0.16366 0.18888 
0.76522 -0.71380 
0.44427 -0.41706 
0.28538 -0.21103 
-0.06265 0.04555 
-0.25576 0.34316 
-0.82736 0.79703 
-0.22251 0.24185 
