49 6 2
-1.28885 0.21165 0.14063 -0.13988 -0.65711 0.03781 
-0.21025 -0.79261 1.52233 -0.73077 -0.68189 0.09363 
1.15171 0.39621 -0.02167 3.96268 0.11457 0.77940 
0.78408 -0.92913 -0.50232 -2.84447 0.49531 -0.03373 
-1.20522 1.89463 -1.20757 0.73443 -1.13059 0.78514 
-0.16622 -0.53643 1.75899 -0.60908 -0.94232 0.23335 
-0.91167 0.14070 0.62649 -1.65510 -0.52565 -0.33934 
1.08797 1.16773 -1.83260 1.75085 0.25918 -0.91532 
0.71884 1.28290 -1.49595 1.46972 0.17262 -0.36170 
1.72079 -1.06721 -0.08375 3.82013 0.95531 -0.43848 
1.24739 -0.29136 -0.01620 0.15308 -0.87479 0.65525 
-0.22363 -1.20127 1.17782 1.61612 -1.39423 -0.41543 
0.92918 0.95443 -0.71626 0.64600 -0.33928 -0.92781 
-0.53233 1.45737 -1.01635 0.66378 0.05579 -0.42901 
1.52457 -0.35709 2.23918 -0.23658 -0.43504 0.38656 
2.48238 -2.14881 3.02584 3.52163 1.17123 0.53902 
1.08516 -2.77344 1.60711 0.47433 0.15134 -1.08948 
1.00242 -0.87550 0.29609 0.83475 0.20477 -0.78608 
0.53662 -1.86263 -0.28628 -0.62997 0.52313 0.26948 
-1.95901 0.52277 0.45790 -2.15514 -1.46683 0.25439 
-1.30333 -1.09370 1.02443 -1.07331 -0.90527 0.06991 
-0.02059 0.46688 -1.46135 -0.71772 -0.06043 0.26816 
0.86240 0.23166 -1.92592 0.82068 1.59426 0.52704 
0.77556 -0.00603 -1.70354 1.46367 1.68329 -0.02384 
0.25121 0.66557 -3.40786 4.10681 0.18076 0.51504 
-2.50306 -0.02511 -1.69484 -0.80879 -1.38904 0.88318 
-0.63525 0.42339 -0.94459 -0.16009 -0.33169 0.69318 
0.36428 -0.14145 -2.55923 -1.91241 1.55150 -0.14317 
0.26941 0.18567 -0.26221 0.75907 1.47160 -0.21886 
-0.96844 -0.94579 0.85813 0.63592 0.85151 -0.19319 
-1.47400 -1.57441 0.63022 -0.30013 -1.04199 -0.24108 
-1.54197 -0.33082 2.12202 1.40438 -0.87269 0.19642 
-2.05561 -1.86759 1.21992 -0.49538 -0.13730 -1.16795 
-0.69322 -1.68724 -0.57062 -0.67680 -0.22563 -0.80766 
-2.54851 -0.34697 -0.46987 1.34812 -1.04973 -0.21795 
-0.32907 -0.36590 0.08784 0.26249 -0.03454 -1.02803 
-0.67272 -0.76451 -0.14233 0.56723 0.31092 0.29280 
-2.17547 1.10216 -1.77788 -1.35429 -0.36138 0.44998 
0.16122 -0.05580 -0.99600 1.46443 0.89987 0.03477 
-0.86577 0.91872 -1.11427 -0.19860 0.37280 0.17921 
-0.99364 0.04071 0.06799 1.55823 2.23892 -0.03305 
0.65836 -1.25756 0.19663 1.19712 1.38810 -1.16812 
-0.61793 2.00260 0.46425 0.96289 -0.70591 0.57217 
0.77753 -2.10026 0.00910 -0.73650 -0.01810 -0.82424 
-0.89526 0.25127 0.48594 -0.98258 -1.03132 0.19244 
1.14028 0.60647 -0.12626 -1.54596 1.12847 0.61129 
-0.12137 0.36375 0.70191 0.62766 1.10198 -0.38931 
0.85967 -0.78166 0.84207 -0.07693 1.75405 -0.49876 
-0.40840 1.01546 0.88628 -0.17341 0.81091 1.11012 
-0.01388 0.63203 -0.86757 -1.72360 -1.37171 -0.87598 
2.41906 -2.56330 
-2.13348 2.22741 
-2.15947 2.18515 
-3.24901 3.24841 
1.80428 -1.89561 
-1.64770 1.60394 
2.50739 -2.56306 
