34 7 6
-0.03581 -0.00198 0.42247 -0.05533 -0.13554 0.02527 -0.11935 
-0.36652 -0.17831 0.66561 -0.08116 0.02854 0.08209 -0.29037 
-0.17354 -0.34654 -0.12537 0.43125 0.22110 0.05581 -0.09630 
0.11692 0.09043 1.26161 0.13836 -0.72440 -0.28385 -0.10984 
0.10248 -0.17287 -1.80986 0.37260 1.45118 0.24477 0.13942 
0.15809 -0.58072 -0.08948 0.49187 0.35198 0.34197 -0.34565 
-0.83157 -0.83237 0.51387 -0.45807 0.41998 0.30186 -0.32424 
0.22305 -0.48122 -0.10335 0.31118 0.25699 0.30986 -0.25797 
-0.50277 -0.47533 0.69309 0.21281 0.14804 -0.01222 -0.11744 
-0.32630 -0.48849 0.29807 0.16172 0.41183 -0.19488 0.21699 
-0.39161 -0.32844 0.50732 -0.32763 -0.06842 0.17734 -0.31481 
0.20264 -0.53470 -0.10237 0.41366 0.33684 0.28787 -0.38816 
-0.04678 -0.14074 0.28064 0.07805 -0.15065 -0.05193 -0.12954 
-0.21079 0.27719 0.75783 0.34115 -0.96260 0.07067 -0.68798 
0.83087 0.69165 0.48232 -0.63976 -0.67768 -1.01381 1.37077 
0.55330 0.73243 -0.33332 -0.37002 -0.58024 0.71491 -0.94759 
0.23188 0.08075 0.69195 0.07948 -0.33608 -0.16763 0.08128 
-0.33939 -0.41566 0.58232 0.07872 0.07870 -0.32724 0.21849 
-0.09541 -0.11966 0.29173 0.16127 -0.01314 -0.07975 0.10069 
-0.83982 -0.73856 0.51487 0.81728 0.92928 -0.53393 0.51861 
-0.03450 -0.04482 0.84884 0.15346 -0.15546 -1.06837 1.04366 
-0.50813 -0.45555 0.38614 0.52172 0.27378 -0.32575 0.23607 
-0.29391 -0.18972 0.16495 0.29557 -0.12866 -0.05366 -0.23012 
-0.39742 -0.33140 0.21057 0.39489 0.41090 -0.25578 0.26606 
0.17758 -0.51296 0.04995 0.35425 0.32895 0.21589 -0.34387 
-0.04634 -0.12643 -0.61846 0.21244 0.68665 -0.00329 0.14448 
0.17289 -0.50617 -0.01009 0.48653 0.34063 0.35914 -0.41324 
0.41893 0.85158 -0.54799 -0.50621 -0.43255 1.04294 -1.13988 
0.30421 -0.70596 -0.10529 0.40879 0.45780 0.43706 -0.28289 
-0.44429 -0.52239 0.41754 -0.29503 0.15760 0.36218 -0.30589 
-0.72146 -0.98227 0.68871 -0.44105 0.52872 0.40199 -0.36300 
0.12814 -0.12407 0.01255 -0.23547 0.41612 0.03056 0.29132 
0.18357 -0.77330 -0.05871 0.60377 0.42208 0.45892 -0.31043 
0.43665 0.38970 -0.91130 0.02868 0.54755 -0.19134 0.40791 
0.22219 0.45454 -0.50868 -0.65299 0.34557 0.03366 0.38781 
-1.23988 0.45693 1.13749 0.79924 1.33671 -1.47937 
-0.83130 2.10001 -1.52184 2.21926 1.55628 -0.78537 
1.54193 1.26023 -1.04323 -3.34485 1.07406 1.68495 
1.10900 -0.56043 1.24520 -1.16804 -1.33663 -1.52004 
1.30513 -2.85522 1.37192 0.38070 -1.26588 0.16102 
-1.65522 0.81878 1.77460 0.85351 -1.57489 1.08828 
1.40516 -2.11427 -1.58741 -0.38214 2.22694 -1.20851 
1.02572 1.65823 0.60434 2.37017 1.38190 1.18765 
